digraph Tree {
node [shape=box, style="filled, rounded", color="black", fontname=helvetica] ;
edge [fontname=helvetica] ;
0 [label="age <= 30.5\ngini = 0.764\nsamples = 12\nvalue = [3, 4, 2, 1, 2]\nclass = Classical", fillcolor="#f0fce9"] ;
1 [label="age <= 22.0\ngini = 0.719\nsamples = 8\nvalue = [3, 0, 2, 1, 2]\nclass = Acoustic", fillcolor="#fbeade"] ;
0 -> 1 [labeldistance=2.5, labelangle=45, headlabel="True"] ;
2 [label="gini = 0.0\nsamples = 2\nvalue = [0, 0, 2, 0, 0]\nclass = Dance", fillcolor="#39e5c5"] ;
1 -> 2 ;
3 [label="gender <= 0.5\ngini = 0.611\nsamples = 6\nvalue = [3, 0, 0, 1, 2]\nclass = Acoustic", fillcolor="#f8e0ce"] ;
1 -> 3 ;
4 [label="gini = 0.0\nsamples = 3\nvalue = [3, 0, 0, 0, 0]\nclass = Acoustic", fillcolor="#e58139"] ;
3 -> 4 ;
5 [label="age <= 24.5\ngini = 0.444\nsamples = 3\nvalue = [0, 0, 0, 1, 2]\nclass = Jazz", fillcolor="#f29ce0"] ;
3 -> 5 ;
6 [label="gini = 0.0\nsamples = 1\nvalue = [0, 0, 0, 1, 0]\nclass = HipHop", fillcolor="#3c39e5"] ;
5 -> 6 ;
7 [label="gini = 0.0\nsamples = 2\nvalue = [0, 0, 0, 0, 2]\nclass = Jazz", fillcolor="#e539c0"] ;
5 -> 7 ;
8 [label="gini = 0.0\nsamples = 4\nvalue = [0, 4, 0, 0, 0]\nclass = Classical", fillcolor="#7be539"] ;
0 -> 8 [labeldistance=2.5, labelangle=-45, headlabel="False"] ;
}